<?xml version="1.0"?>
<opencv_storage>
<cascade>
  <stageType>BOOST</stageType>
  <featureType>HAAR</featureType>
  <height>24</height>
  <width>24</width>
  <stageParams>
    <boostType>GAB</boostType>
    <minHitRate>9.9500000476837158e-01</minHitRate>
    <maxFalseAlarm>5.0000000000000000e-01</maxFalseAlarm>
    <weightTrimRate>9.4999998807907104e-01</weightTrimRate>
    <maxDepth>1</maxDepth>
    <maxWeakCount>100</maxWeakCount></stageParams>
  <featureParams>
    <maxCatCount>0</maxCatCount>
    <featSize>1</featSize>
    <mode>BASIC</mode></featureParams>
  <stageNum>5</stageNum>
  <stages>
    <!-- stage 0 -->
    <_>
      <maxWeakCount>2</maxWeakCount>
      <stageThreshold>-1.5091282129287720e-01</stageThreshold>
      <weakClassifiers>
        <_>
          <internalNodes>
            0 -1 0 3.3796772360801697e-02</internalNodes>
          <leafValues>
            -9.8690670728683472e-01 9.1549295186996460e-01</leafValues></_>
        <_>
          <internalNodes>
            0 -1 7 8.0364957451820374e-02</internalNodes>
          <leafValues>
            -9.9653083086013794e-01 8.3599388599395752e-01</leafValues></_></weakClassifiers></_>
    <!-- stage 1 -->
    <_>
      <maxWeakCount>2</maxWeakCount>
      <stageThreshold>-1.5655699372291565e-01</stageThreshold>
      <weakClassifiers>
        <_>
          <internalNodes>
            0 -1 12 5.6027837097644806e-02</internalNodes>
          <leafValues>
            -9.9343186616897583e-01 9.1780823469161987e-01</leafValues></_>
        <_>
          <internalNodes>
            0 -1 8 -3.4087575972080231e-02</internalNodes>
          <leafValues>
            8.3687484264373779e-01 -1.</leafValues></_></weakClassifiers></_>
    <!-- stage 2 -->
    <_>
      <maxWeakCount>3</maxWeakCount>
      <stageThreshold>-1.0935897827148438e+00</stageThreshold>
      <weakClassifiers>
        <_>
          <internalNodes>
            0 -1 2 1.7919406294822693e-01</internalNodes>
          <leafValues>
            -9.9345338344573975e-01 9.7183096408843994e-01</leafValues></_>
        <_>
          <internalNodes>
            0 -1 4 1.3534295558929443e-01</internalNodes>
          <leafValues>
            -9.7014534473419189e-01 1.</leafValues></_>
        <_>
          <internalNodes>
            0 -1 3 1.3166248798370361e-01</internalNodes>
          <leafValues>
            -9.7375833988189697e-01 8.7000894546508789e-01</leafValues></_></weakClassifiers></_>
    <!-- stage 3 -->
    <_>
      <maxWeakCount>3</maxWeakCount>
      <stageThreshold>-1.3626620769500732e+00</stageThreshold>
      <weakClassifiers>
        <_>
          <internalNodes>
            0 -1 9 -4.3085765093564987e-02</internalNodes>
          <leafValues>
            8.4615385532379150e-01 -9.6110212802886963e-01</leafValues></_>
        <_>
          <internalNodes>
            0 -1 11 -2.7290917932987213e-02</internalNodes>
          <leafValues>
            7.7744925022125244e-01 -9.5706915855407715e-01</leafValues></_>
        <_>
          <internalNodes>
            0 -1 10 -3.0990198254585266e-02</internalNodes>
          <leafValues>
            5.5550926923751831e-01 -9.8345035314559937e-01</leafValues></_></weakClassifiers></_>
    <!-- stage 4 -->
    <_>
      <maxWeakCount>3</maxWeakCount>
      <stageThreshold>-1.2334506511688232e+00</stageThreshold>
      <weakClassifiers>
        <_>
          <internalNodes>
            0 -1 6 8.5746787488460541e-02</internalNodes>
          <leafValues>
            -9.7682118415832520e-01 6.6666668653488159e-01</leafValues></_>
        <_>
          <internalNodes>
            0 -1 1 2.7343866229057312e-01</internalNodes>
          <leafValues>
            -8.7573707103729248e-01 9.5839583873748779e-01</leafValues></_>
        <_>
          <internalNodes>
            0 -1 5 -2.8562022373080254e-02</internalNodes>
          <leafValues>
            6.1910766363143921e-01 -9.4882911443710327e-01</leafValues></_></weakClassifiers></_></stages>
  <features>
    <_>
      <rects>
        <_>
          0 3 12 4 -1.</_>
        <_>
          0 3 6 2 2.</_>
        <_>
          6 5 6 2 2.</_></rects>
      <tilted>0</tilted></_>
    <_>
      <rects>
        <_>
          1 6 12 12 -1.</_>
        <_>
          5 6 4 12 3.</_></rects>
      <tilted>0</tilted></_>
    <_>
      <rects>
        <_>
          2 6 12 13 -1.</_>
        <_>
          6 6 4 13 3.</_></rects>
      <tilted>0</tilted></_>
    <_>
      <rects>
        <_>
          2 7 12 8 -1.</_>
        <_>
          6 7 4 8 3.</_></rects>
      <tilted>0</tilted></_>
    <_>
      <rects>
        <_>
          2 10 12 9 -1.</_>
        <_>
          6 10 4 9 3.</_></rects>
      <tilted>0</tilted></_>
    <_>
      <rects>
        <_>
          6 15 4 6 -1.</_>
        <_>
          6 18 4 3 2.</_></rects>
      <tilted>0</tilted></_>
    <_>
      <rects>
        <_>
          7 4 9 6 -1.</_>
        <_>
          7 6 9 2 3.</_></rects>
      <tilted>0</tilted></_>
    <_>
      <rects>
        <_>
          8 2 6 9 -1.</_>
        <_>
          8 5 6 3 3.</_></rects>
      <tilted>0</tilted></_>
    <_>
      <rects>
        <_>
          10 8 8 6 -1.</_>
        <_>
          10 8 4 3 2.</_>
        <_>
          14 11 4 3 2.</_></rects>
      <tilted>0</tilted></_>
    <_>
      <rects>
        <_>
          10 11 7 4 -1.</_>
        <_>
          10 13 7 2 2.</_></rects>
      <tilted>0</tilted></_>
    <_>
      <rects>
        <_>
          12 10 3 8 -1.</_>
        <_>
          12 14 3 4 2.</_></rects>
      <tilted>0</tilted></_>
    <_>
      <rects>
        <_>
          12 11 10 2 -1.</_>
        <_>
          17 11 5 2 2.</_></rects>
      <tilted>0</tilted></_>
    <_>
      <rects>
        <_>
          15 2 2 15 -1.</_>
        <_>
          15 7 2 5 3.</_></rects>
      <tilted>0</tilted></_></features></cascade>
</opencv_storage>
