<?xml version="1.0"?>
<opencv_storage>
<cascade>
  <stageType>BOOST</stageType>
  <featureType>HAAR</featureType>
  <height>24</height>
  <width>24</width>
  <stageParams>
    <boostType>GAB</boostType>
    <minHitRate>9.9500000476837158e-01</minHitRate>
    <maxFalseAlarm>5.0000000000000000e-01</maxFalseAlarm>
    <weightTrimRate>9.4999998807907104e-01</weightTrimRate>
    <maxDepth>1</maxDepth>
    <maxWeakCount>100</maxWeakCount></stageParams>
  <featureParams>
    <maxCatCount>0</maxCatCount>
    <featSize>1</featSize>
    <mode>BASIC</mode></featureParams>
  <stageNum>12</stageNum>
  <stages>
    <!-- stage 0 -->
    <_>
      <maxWeakCount>3</maxWeakCount>
      <stageThreshold>-1.2738900184631348e+00</stageThreshold>
      <weakClassifiers>
        <_>
          <internalNodes>
            0 -1 5 1.2269327044487000e-01</internalNodes>
          <leafValues>
            -9.3204981088638306e-01 3.6708861589431763e-01</leafValues></_>
        <_>
          <internalNodes>
            0 -1 49 2.2359881550073624e-02</internalNodes>
          <leafValues>
            -8.2396918535232544e-01 6.6581046581268311e-01</leafValues></_>
        <_>
          <internalNodes>
            0 -1 14 9.3858167529106140e-03</internalNodes>
          <leafValues>
            -8.1700944900512695e-01 4.9646246433258057e-01</leafValues></_></weakClassifiers></_>
    <!-- stage 1 -->
    <_>
      <maxWeakCount>4</maxWeakCount>
      <stageThreshold>-1.9670646190643311e+00</stageThreshold>
      <weakClassifiers>
        <_>
          <internalNodes>
            0 -1 28 -2.2899033501744270e-02</internalNodes>
          <leafValues>
            6.6315788030624390e-01 -8.7526428699493408e-01</leafValues></_>
        <_>
          <internalNodes>
            0 -1 1 2.8588789701461792e-01</internalNodes>
          <leafValues>
            -8.2333123683929443e-01 5.4941415786743164e-01</leafValues></_>
        <_>
          <internalNodes>
            0 -1 17 1.0472418367862701e-01</internalNodes>
          <leafValues>
            -6.7013275623321533e-01 5.5887520313262939e-01</leafValues></_>
        <_>
          <internalNodes>
            0 -1 22 4.0680095553398132e-03</internalNodes>
          <leafValues>
            -7.8614580631256104e-01 4.0166357159614563e-01</leafValues></_></weakClassifiers></_>
    <!-- stage 2 -->
    <_>
      <maxWeakCount>3</maxWeakCount>
      <stageThreshold>-1.3250454664230347e+00</stageThreshold>
      <weakClassifiers>
        <_>
          <internalNodes>
            0 -1 42 3.0765928328037262e-02</internalNodes>
          <leafValues>
            -8.6264306306838989e-01 8.0000001192092896e-01</leafValues></_>
        <_>
          <internalNodes>
            0 -1 30 6.6322013735771179e-02</internalNodes>
          <leafValues>
            -8.2185202836990356e-01 2.6395821571350098e-01</leafValues></_>
        <_>
          <internalNodes>
            0 -1 24 -3.4188233315944672e-02</internalNodes>
          <leafValues>
            4.1685101389884949e-01 -7.2636055946350098e-01</leafValues></_></weakClassifiers></_>
    <!-- stage 3 -->
    <_>
      <maxWeakCount>5</maxWeakCount>
      <stageThreshold>-1.5174751281738281e+00</stageThreshold>
      <weakClassifiers>
        <_>
          <internalNodes>
            0 -1 32 -4.9107134342193604e-02</internalNodes>
          <leafValues>
            6.1797749996185303e-01 -8.6134451627731323e-01</leafValues></_>
        <_>
          <internalNodes>
            0 -1 55 -1.1973887681961060e-01</internalNodes>
          <leafValues>
            5.4451119899749756e-01 -7.5692772865295410e-01</leafValues></_>
        <_>
          <internalNodes>
            0 -1 40 -1.2191079556941986e-02</internalNodes>
          <leafValues>
            5.7032060623168945e-01 -4.7972664237022400e-01</leafValues></_>
        <_>
          <internalNodes>
            0 -1 27 7.6916650868952274e-03</internalNodes>
          <leafValues>
            -6.7240035533905029e-01 3.7192970514297485e-01</leafValues></_>
        <_>
          <internalNodes>
            0 -1 19 2.5870194658637047e-03</internalNodes>
          <leafValues>
            -8.4145313501358032e-01 2.8414765000343323e-01</leafValues></_></weakClassifiers></_>
    <!-- stage 4 -->
    <_>
      <maxWeakCount>6</maxWeakCount>
      <stageThreshold>-1.7537775039672852e+00</stageThreshold>
      <weakClassifiers>
        <_>
          <internalNodes>
            0 -1 45 2.0424908027052879e-02</internalNodes>
          <leafValues>
            -8.4757983684539795e-01 8.2857143878936768e-01</leafValues></_>
        <_>
          <internalNodes>
            0 -1 54 -7.1257233619689941e-02</internalNodes>
          <leafValues>
            1.7068250477313995e-01 -7.7238410711288452e-01</leafValues></_>
        <_>
          <internalNodes>
            0 -1 56 3.3314633183181286e-03</internalNodes>
          <leafValues>
            -4.2733421921730042e-01 6.7323517799377441e-01</leafValues></_>
        <_>
          <internalNodes>
            0 -1 8 1.1611536145210266e-01</internalNodes>
          <leafValues>
            -6.4677143096923828e-01 4.6342828869819641e-01</leafValues></_>
        <_>
          <internalNodes>
            0 -1 3 -2.3221314768306911e-04</internalNodes>
          <leafValues>
            -8.3992409706115723e-01 2.4879312515258789e-01</leafValues></_>
        <_>
          <internalNodes>
            0 -1 44 -1.0218437761068344e-02</internalNodes>
          <leafValues>
            6.9149899482727051e-01 -3.5748425126075745e-01</leafValues></_></weakClassifiers></_>
    <!-- stage 5 -->
    <_>
      <maxWeakCount>4</maxWeakCount>
      <stageThreshold>-1.6804050207138062e+00</stageThreshold>
      <weakClassifiers>
        <_>
          <internalNodes>
            0 -1 37 -1.0975514538586140e-02</internalNodes>
          <leafValues>
            8.2051283121109009e-01 -8.6085152626037598e-01</leafValues></_>
        <_>
          <internalNodes>
            0 -1 13 3.1324777007102966e-01</internalNodes>
          <leafValues>
            -6.4996993541717529e-01 4.8674497008323669e-01</leafValues></_>
        <_>
          <internalNodes>
            0 -1 36 -1.3353817164897919e-02</internalNodes>
          <leafValues>
            6.7550021409988403e-01 -5.1999354362487793e-01</leafValues></_>
        <_>
          <internalNodes>
            0 -1 57 -2.7187265455722809e-02</internalNodes>
          <leafValues>
            3.5040995478630066e-01 -7.8070294857025146e-01</leafValues></_></weakClassifiers></_>
    <!-- stage 6 -->
    <_>
      <maxWeakCount>5</maxWeakCount>
      <stageThreshold>-1.3502146005630493e+00</stageThreshold>
      <weakClassifiers>
        <_>
          <internalNodes>
            0 -1 47 -1.3143438845872879e-02</internalNodes>
          <leafValues>
            7.6470589637756348e-01 -8.3967113494873047e-01</leafValues></_>
        <_>
          <internalNodes>
            0 -1 4 1.2931853532791138e-01</internalNodes>
          <leafValues>
            -7.1371251344680786e-01 3.0941486358642578e-01</leafValues></_>
        <_>
          <internalNodes>
            0 -1 34 2.2151931189000607e-03</internalNodes>
          <leafValues>
            -4.7250229120254517e-01 5.3675067424774170e-01</leafValues></_>
        <_>
          <internalNodes>
            0 -1 25 1.3133612228557467e-03</internalNodes>
          <leafValues>
            2.3375402390956879e-01 -9.2706358432769775e-01</leafValues></_>
        <_>
          <internalNodes>
            0 -1 20 -7.2297016158699989e-03</internalNodes>
          <leafValues>
            4.4191730022430420e-01 -5.1459676027297974e-01</leafValues></_></weakClassifiers></_>
    <!-- stage 7 -->
    <_>
      <maxWeakCount>7</maxWeakCount>
      <stageThreshold>-1.4138994216918945e+00</stageThreshold>
      <weakClassifiers>
        <_>
          <internalNodes>
            0 -1 41 6.0314729809761047e-02</internalNodes>
          <leafValues>
            -8.3967113494873047e-01 7.6470589637756348e-01</leafValues></_>
        <_>
          <internalNodes>
            0 -1 53 3.8709193468093872e-03</internalNodes>
          <leafValues>
            -5.1961368322372437e-01 6.7343121767044067e-01</leafValues></_>
        <_>
          <internalNodes>
            0 -1 2 -4.5754626626148820e-05</internalNodes>
          <leafValues>
            -6.9847416877746582e-01 3.5322442650794983e-01</leafValues></_>
        <_>
          <internalNodes>
            0 -1 18 -5.5756554007530212e-02</internalNodes>
          <leafValues>
            -1. 2.0508459210395813e-01</leafValues></_>
        <_>
          <internalNodes>
            0 -1 52 1.1623629834502935e-03</internalNodes>
          <leafValues>
            -3.4692391753196716e-01 6.6165471076965332e-01</leafValues></_>
        <_>
          <internalNodes>
            0 -1 2 3.0629780667368323e-05</internalNodes>
          <leafValues>
            3.4989964962005615e-01 -6.3835728168487549e-01</leafValues></_>
        <_>
          <internalNodes>
            0 -1 50 5.2373367361724377e-04</internalNodes>
          <leafValues>
            -4.9541607499122620e-01 4.3579921126365662e-01</leafValues></_></weakClassifiers></_>
    <!-- stage 8 -->
    <_>
      <maxWeakCount>7</maxWeakCount>
      <stageThreshold>-1.6167287826538086e+00</stageThreshold>
      <weakClassifiers>
        <_>
          <internalNodes>
            0 -1 31 -7.1098238229751587e-02</internalNodes>
          <leafValues>
            8.5454547405242920e-01 -8.2352942228317261e-01</leafValues></_>
        <_>
          <internalNodes>
            0 -1 12 3.0680537223815918e-01</internalNodes>
          <leafValues>
            -6.0617160797119141e-01 3.0910038948059082e-01</leafValues></_>
        <_>
          <internalNodes>
            0 -1 6 4.2006708681583405e-02</internalNodes>
          <leafValues>
            -5.1580423116683960e-01 3.6634740233421326e-01</leafValues></_>
        <_>
          <internalNodes>
            0 -1 46 5.6008966639637947e-03</internalNodes>
          <leafValues>
            -4.9572417140007019e-01 3.6081933975219727e-01</leafValues></_>
        <_>
          <internalNodes>
            0 -1 21 3.0649127438664436e-04</internalNodes>
          <leafValues>
            -7.1424198150634766e-01 3.0255776643753052e-01</leafValues></_>
        <_>
          <internalNodes>
            0 -1 11 1.0882351780310273e-03</internalNodes>
          <leafValues>
            1.9637648761272430e-01 -7.4966746568679810e-01</leafValues></_>
        <_>
          <internalNodes>
            0 -1 43 -1.9534055609256029e-03</internalNodes>
          <leafValues>
            4.9086821079254150e-01 -3.9632901549339294e-01</leafValues></_></weakClassifiers></_>
    <!-- stage 9 -->
    <_>
      <maxWeakCount>7</maxWeakCount>
      <stageThreshold>-1.3620325326919556e+00</stageThreshold>
      <weakClassifiers>
        <_>
          <internalNodes>
            0 -1 29 -2.1314051002264023e-02</internalNodes>
          <leafValues>
            5.5000001192092896e-01 -8.4183144569396973e-01</leafValues></_>
        <_>
          <internalNodes>
            0 -1 58 2.0762432366609573e-02</internalNodes>
          <leafValues>
            -5.3757280111312866e-01 4.0891221165657043e-01</leafValues></_>
        <_>
          <internalNodes>
            0 -1 0 -1.6788924767752178e-05</internalNodes>
          <leafValues>
            -7.5617706775665283e-01 2.7083092927932739e-01</leafValues></_>
        <_>
          <internalNodes>
            0 -1 0 8.0243276897817850e-05</internalNodes>
          <leafValues>
            3.4872770309448242e-01 -5.6289327144622803e-01</leafValues></_>
        <_>
          <internalNodes>
            0 -1 38 -7.3294057510793209e-03</internalNodes>
          <leafValues>
            6.3388240337371826e-01 -2.9745826125144958e-01</leafValues></_>
        <_>
          <internalNodes>
            0 -1 23 3.5853996872901917e-02</internalNodes>
          <leafValues>
            -5.0331526994705200e-01 4.3059161305427551e-01</leafValues></_>
        <_>
          <internalNodes>
            0 -1 15 3.1572963052894920e-05</internalNodes>
          <leafValues>
            3.0118355154991150e-01 -6.5223115682601929e-01</leafValues></_></weakClassifiers></_>
    <!-- stage 10 -->
    <_>
      <maxWeakCount>7</maxWeakCount>
      <stageThreshold>-1.4485660791397095e+00</stageThreshold>
      <weakClassifiers>
        <_>
          <internalNodes>
            0 -1 39 1.0116696357727051e-02</internalNodes>
          <leafValues>
            -8.1432896852493286e-01 8.3999997377395630e-01</leafValues></_>
        <_>
          <internalNodes>
            0 -1 10 -3.0938124837120995e-05</internalNodes>
          <leafValues>
            -8.9273339509963989e-01 -2.9319085180759430e-02</leafValues></_>
        <_>
          <internalNodes>
            0 -1 7 1.5171949053183198e-04</internalNodes>
          <leafValues>
            -6.8237000703811646e-01 2.5744354724884033e-01</leafValues></_>
        <_>
          <internalNodes>
            0 -1 48 9.7123347222805023e-03</internalNodes>
          <leafValues>
            -3.5239797830581665e-01 6.2069380283355713e-01</leafValues></_>
        <_>
          <internalNodes>
            0 -1 16 -2.7115358534501866e-05</internalNodes>
          <leafValues>
            -4.7039395570755005e-01 3.6715862154960632e-01</leafValues></_>
        <_>
          <internalNodes>
            0 -1 61 -1.4810035005211830e-02</internalNodes>
          <leafValues>
            5.3472471237182617e-01 -3.7303164601325989e-01</leafValues></_>
        <_>
          <internalNodes>
            0 -1 59 -3.0803216621279716e-02</internalNodes>
          <leafValues>
            3.9019349217414856e-01 -4.7203338146209717e-01</leafValues></_></weakClassifiers></_>
    <!-- stage 11 -->
    <_>
      <maxWeakCount>7</maxWeakCount>
      <stageThreshold>-1.4925780296325684e+00</stageThreshold>
      <weakClassifiers>
        <_>
          <internalNodes>
            0 -1 35 1.0166853666305542e-02</internalNodes>
          <leafValues>
            -8.2510286569595337e-01 5.3623187541961670e-01</leafValues></_>
        <_>
          <internalNodes>
            0 -1 60 -6.1076618731021881e-03</internalNodes>
          <leafValues>
            4.9034434556961060e-01 -5.0631624460220337e-01</leafValues></_>
        <_>
          <internalNodes>
            0 -1 9 1.3841628096997738e-02</internalNodes>
          <leafValues>
            -7.6811134815216064e-01 2.2819654643535614e-01</leafValues></_>
        <_>
          <internalNodes>
            0 -1 62 1.9407403306104243e-04</internalNodes>
          <leafValues>
            2.0541629195213318e-01 -7.0942169427871704e-01</leafValues></_>
        <_>
          <internalNodes>
            0 -1 51 1.7273217672482133e-03</internalNodes>
          <leafValues>
            -3.9036038517951965e-01 4.2353355884552002e-01</leafValues></_>
        <_>
          <internalNodes>
            0 -1 26 7.9201557673513889e-04</internalNodes>
          <leafValues>
            -7.2720336914062500e-01 2.4413651227951050e-01</leafValues></_>
        <_>
          <internalNodes>
            0 -1 33 2.2446449846029282e-02</internalNodes>
          <leafValues>
            -2.6613387465476990e-01 7.5833344459533691e-01</leafValues></_></weakClassifiers></_></stages>
  <features>
    <_>
      <rects>
        <_>
          0 0 4 5 -1.</_>
        <_>
          2 0 2 5 2.</_></rects>
      <tilted>0</tilted></_>
    <_>
      <rects>
        <_>
          0 0 23 20 -1.</_>
        <_>
          0 10 23 10 2.</_></rects>
      <tilted>0</tilted></_>
    <_>
      <rects>
        <_>
          0 3 2 3 -1.</_>
        <_>
          1 3 1 3 2.</_></rects>
      <tilted>0</tilted></_>
    <_>
      <rects>
        <_>
          0 3 2 6 -1.</_>
        <_>
          0 3 1 3 2.</_>
        <_>
          1 6 1 3 2.</_></rects>
      <tilted>0</tilted></_>
    <_>
      <rects>
        <_>
          0 5 14 8 -1.</_>
        <_>
          7 5 7 8 2.</_></rects>
      <tilted>0</tilted></_>
    <_>
      <rects>
        <_>
          0 8 24 4 -1.</_>
        <_>
          8 8 8 4 3.</_></rects>
      <tilted>0</tilted></_>
    <_>
      <rects>
        <_>
          0 12 15 7 -1.</_>
        <_>
          5 12 5 7 3.</_></rects>
      <tilted>0</tilted></_>
    <_>
      <rects>
        <_>
          0 15 9 2 -1.</_>
        <_>
          0 16 9 1 2.</_></rects>
      <tilted>0</tilted></_>
    <_>
      <rects>
        <_>
          1 3 20 16 -1.</_>
        <_>
          1 11 20 8 2.</_></rects>
      <tilted>0</tilted></_>
    <_>
      <rects>
        <_>
          1 13 18 5 -1.</_>
        <_>
          7 13 6 5 3.</_></rects>
      <tilted>0</tilted></_>
    <_>
      <rects>
        <_>
          2 1 2 13 -1.</_>
        <_>
          3 1 1 13 2.</_></rects>
      <tilted>0</tilted></_>
    <_>
      <rects>
        <_>
          2 2 15 3 -1.</_>
        <_>
          2 3 15 1 3.</_></rects>
      <tilted>0</tilted></_>
    <_>
      <rects>
        <_>
          3 0 21 11 -1.</_>
        <_>
          10 0 7 11 3.</_></rects>
      <tilted>0</tilted></_>
    <_>
      <rects>
        <_>
          3 1 21 11 -1.</_>
        <_>
          10 1 7 11 3.</_></rects>
      <tilted>0</tilted></_>
    <_>
      <rects>
        <_>
          3 13 6 4 -1.</_>
        <_>
          6 13 3 4 2.</_></rects>
      <tilted>0</tilted></_>
    <_>
      <rects>
        <_>
          4 0 2 2 -1.</_>
        <_>
          5 0 1 2 2.</_></rects>
      <tilted>0</tilted></_>
    <_>
      <rects>
        <_>
          4 0 2 3 -1.</_>
        <_>
          5 0 1 3 2.</_></rects>
      <tilted>0</tilted></_>
    <_>
      <rects>
        <_>
          4 6 18 6 -1.</_>
        <_>
          10 6 6 6 3.</_></rects>
      <tilted>0</tilted></_>
    <_>
      <rects>
        <_>
          4 8 20 14 -1.</_>
        <_>
          4 8 10 7 2.</_>
        <_>
          14 15 10 7 2.</_></rects>
      <tilted>0</tilted></_>
    <_>
      <rects>
        <_>
          4 12 6 4 -1.</_>
        <_>
          4 14 6 2 2.</_></rects>
      <tilted>0</tilted></_>
    <_>
      <rects>
        <_>
          4 14 4 10 -1.</_>
        <_>
          4 14 2 5 2.</_>
        <_>
          6 19 2 5 2.</_></rects>
      <tilted>0</tilted></_>
    <_>
      <rects>
        <_>
          5 6 8 2 -1.</_>
        <_>
          5 7 8 1 2.</_></rects>
      <tilted>0</tilted></_>
    <_>
      <rects>
        <_>
          5 12 6 4 -1.</_>
        <_>
          5 14 6 2 2.</_></rects>
      <tilted>0</tilted></_>
    <_>
      <rects>
        <_>
          6 3 8 7 -1.</_>
        <_>
          10 3 4 7 2.</_></rects>
      <tilted>0</tilted></_>
    <_>
      <rects>
        <_>
          6 3 8 20 -1.</_>
        <_>
          6 3 4 10 2.</_>
        <_>
          10 13 4 10 2.</_></rects>
      <tilted>0</tilted></_>
    <_>
      <rects>
        <_>
          6 3 17 3 -1.</_>
        <_>
          6 4 17 1 3.</_></rects>
      <tilted>0</tilted></_>
    <_>
      <rects>
        <_>
          6 5 11 2 -1.</_>
        <_>
          6 6 11 1 2.</_></rects>
      <tilted>0</tilted></_>
    <_>
      <rects>
        <_>
          6 7 4 7 -1.</_>
        <_>
          8 7 2 7 2.</_></rects>
      <tilted>0</tilted></_>
    <_>
      <rects>
        <_>
          6 11 8 4 -1.</_>
        <_>
          6 11 4 2 2.</_>
        <_>
          10 13 4 2 2.</_></rects>
      <tilted>0</tilted></_>
    <_>
      <rects>
        <_>
          6 17 3 4 -1.</_>
        <_>
          6 19 3 2 2.</_></rects>
      <tilted>0</tilted></_>
    <_>
      <rects>
        <_>
          7 0 11 12 -1.</_>
        <_>
          7 6 11 6 2.</_></rects>
      <tilted>0</tilted></_>
    <_>
      <rects>
        <_>
          7 9 6 8 -1.</_>
        <_>
          7 9 3 4 2.</_>
        <_>
          10 13 3 4 2.</_></rects>
      <tilted>0</tilted></_>
    <_>
      <rects>
        <_>
          7 17 12 4 -1.</_>
        <_>
          7 19 12 2 2.</_></rects>
      <tilted>0</tilted></_>
    <_>
      <rects>
        <_>
          7 18 9 6 -1.</_>
        <_>
          7 20 9 2 3.</_></rects>
      <tilted>0</tilted></_>
    <_>
      <rects>
        <_>
          8 13 3 2 -1.</_>
        <_>
          9 13 1 2 3.</_></rects>
      <tilted>0</tilted></_>
    <_>
      <rects>
        <_>
          8 17 7 2 -1.</_>
        <_>
          8 18 7 1 2.</_></rects>
      <tilted>0</tilted></_>
    <_>
      <rects>
        <_>
          9 10 9 6 -1.</_>
        <_>
          9 12 9 2 3.</_></rects>
      <tilted>0</tilted></_>
    <_>
      <rects>
        <_>
          9 14 6 1 -1.</_>
        <_>
          11 14 2 1 3.</_></rects>
      <tilted>0</tilted></_>
    <_>
      <rects>
        <_>
          10 10 1 6 -1.</_>
        <_>
          10 12 1 2 3.</_></rects>
      <tilted>0</tilted></_>
    <_>
      <rects>
        <_>
          10 14 2 4 -1.</_>
        <_>
          10 14 1 2 2.</_>
        <_>
          11 16 1 2 2.</_></rects>
      <tilted>0</tilted></_>
    <_>
      <rects>
        <_>
          11 8 6 2 -1.</_>
        <_>
          14 8 3 2 2.</_></rects>
      <tilted>0</tilted></_>
    <_>
      <rects>
        <_>
          11 9 6 8 -1.</_>
        <_>
          11 9 3 4 2.</_>
        <_>
          14 13 3 4 2.</_></rects>
      <tilted>0</tilted></_>
    <_>
      <rects>
        <_>
          11 10 6 6 -1.</_>
        <_>
          11 10 3 3 2.</_>
        <_>
          14 13 3 3 2.</_></rects>
      <tilted>0</tilted></_>
    <_>
      <rects>
        <_>
          11 12 2 4 -1.</_>
        <_>
          11 12 1 2 2.</_>
        <_>
          12 14 1 2 2.</_></rects>
      <tilted>0</tilted></_>
    <_>
      <rects>
        <_>
          11 13 4 6 -1.</_>
        <_>
          11 13 2 3 2.</_>
        <_>
          13 16 2 3 2.</_></rects>
      <tilted>0</tilted></_>
    <_>
      <rects>
        <_>
          11 15 2 6 -1.</_>
        <_>
          11 17 2 2 3.</_></rects>
      <tilted>0</tilted></_>
    <_>
      <rects>
        <_>
          12 10 4 11 -1.</_>
        <_>
          14 10 2 11 2.</_></rects>
      <tilted>0</tilted></_>
    <_>
      <rects>
        <_>
          12 12 1 6 -1.</_>
        <_>
          12 14 1 2 3.</_></rects>
      <tilted>0</tilted></_>
    <_>
      <rects>
        <_>
          13 8 2 6 -1.</_>
        <_>
          13 10 2 2 3.</_></rects>
      <tilted>0</tilted></_>
    <_>
      <rects>
        <_>
          13 12 6 6 -1.</_>
        <_>
          15 12 2 6 3.</_></rects>
      <tilted>0</tilted></_>
    <_>
      <rects>
        <_>
          13 14 3 1 -1.</_>
        <_>
          14 14 1 1 3.</_></rects>
      <tilted>0</tilted></_>
    <_>
      <rects>
        <_>
          13 15 4 1 -1.</_>
        <_>
          15 15 2 1 2.</_></rects>
      <tilted>0</tilted></_>
    <_>
      <rects>
        <_>
          13 16 1 3 -1.</_>
        <_>
          13 17 1 1 3.</_></rects>
      <tilted>0</tilted></_>
    <_>
      <rects>
        <_>
          13 17 3 2 -1.</_>
        <_>
          13 18 3 1 2.</_></rects>
      <tilted>0</tilted></_>
    <_>
      <rects>
        <_>
          14 0 8 17 -1.</_>
        <_>
          18 0 4 17 2.</_></rects>
      <tilted>0</tilted></_>
    <_>
      <rects>
        <_>
          14 2 10 18 -1.</_>
        <_>
          19 2 5 18 2.</_></rects>
      <tilted>0</tilted></_>
    <_>
      <rects>
        <_>
          14 10 2 4 -1.</_>
        <_>
          14 10 1 2 2.</_>
        <_>
          15 12 1 2 2.</_></rects>
      <tilted>0</tilted></_>
    <_>
      <rects>
        <_>
          15 0 6 18 -1.</_>
        <_>
          18 0 3 18 2.</_></rects>
      <tilted>0</tilted></_>
    <_>
      <rects>
        <_>
          15 15 4 6 -1.</_>
        <_>
          15 17 4 2 3.</_></rects>
      <tilted>0</tilted></_>
    <_>
      <rects>
        <_>
          16 8 8 7 -1.</_>
        <_>
          20 8 4 7 2.</_></rects>
      <tilted>0</tilted></_>
    <_>
      <rects>
        <_>
          16 10 2 6 -1.</_>
        <_>
          16 10 1 3 2.</_>
        <_>
          17 13 1 3 2.</_></rects>
      <tilted>0</tilted></_>
    <_>
      <rects>
        <_>
          16 13 4 7 -1.</_>
        <_>
          18 13 2 7 2.</_></rects>
      <tilted>0</tilted></_>
    <_>
      <rects>
        <_>
          22 0 2 9 -1.</_>
        <_>
          23 0 1 9 2.</_></rects>
      <tilted>0</tilted></_></features></cascade>
</opencv_storage>
