<?xml version="1.0"?>
<opencv_storage>
<cascade>
  <stageType>BOOST</stageType>
  <featureType>HAAR</featureType>
  <height>24</height>
  <width>24</width>
  <stageParams>
    <boostType>GAB</boostType>
    <minHitRate>9.9500000476837158e-01</minHitRate>
    <maxFalseAlarm>5.0000000000000000e-01</maxFalseAlarm>
    <weightTrimRate>9.4999998807907104e-01</weightTrimRate>
    <maxDepth>1</maxDepth>
    <maxWeakCount>100</maxWeakCount></stageParams>
  <featureParams>
    <maxCatCount>0</maxCatCount>
    <featSize>1</featSize>
    <mode>BASIC</mode></featureParams>
  <stageNum>10</stageNum>
  <stages>
    <!-- stage 0 -->
    <_>
      <maxWeakCount>3</maxWeakCount>
      <stageThreshold>-1.2951552867889404e+00</stageThreshold>
      <weakClassifiers>
        <_>
          <internalNodes>
            0 -1 31 5.1178157329559326e-02</internalNodes>
          <leafValues>
            -9.3365854024887085e-01 9.3442624807357788e-01</leafValues></_>
        <_>
          <internalNodes>
            0 -1 10 1.0525591671466827e-01</internalNodes>
          <leafValues>
            -9.6744138002395630e-01 5.1798069477081299e-01</leafValues></_>
        <_>
          <internalNodes>
            0 -1 32 2.6750208809971809e-02</internalNodes>
          <leafValues>
            -8.0921345949172974e-01 6.0594469308853149e-01</leafValues></_></weakClassifiers></_>
    <!-- stage 1 -->
    <_>
      <maxWeakCount>3</maxWeakCount>
      <stageThreshold>-1.3641084432601929e+00</stageThreshold>
      <weakClassifiers>
        <_>
          <internalNodes>
            0 -1 12 1.0496255755424500e-01</internalNodes>
          <leafValues>
            -9.3076163530349731e-01 8.2170540094375610e-01</leafValues></_>
        <_>
          <internalNodes>
            0 -1 40 1.4562214724719524e-02</internalNodes>
          <leafValues>
            -8.0340337753295898e-01 7.2372335195541382e-01</leafValues></_>
        <_>
          <internalNodes>
            0 -1 27 -2.1901231259107590e-02</internalNodes>
          <leafValues>
            3.7005656957626343e-01 -9.0807402133941650e-01</leafValues></_></weakClassifiers></_>
    <!-- stage 2 -->
    <_>
      <maxWeakCount>5</maxWeakCount>
      <stageThreshold>-1.3657088279724121e+00</stageThreshold>
      <weakClassifiers>
        <_>
          <internalNodes>
            0 -1 13 8.9910671114921570e-02</internalNodes>
          <leafValues>
            -8.9853656291961670e-01 7.8688526153564453e-01</leafValues></_>
        <_>
          <internalNodes>
            0 -1 47 -2.9863080009818077e-02</internalNodes>
          <leafValues>
            6.7167294025421143e-01 -7.5366199016571045e-01</leafValues></_>
        <_>
          <internalNodes>
            0 -1 37 -1.4703868888318539e-02</internalNodes>
          <leafValues>
            4.6972507238388062e-01 -7.1296465396881104e-01</leafValues></_>
        <_>
          <internalNodes>
            0 -1 18 3.0100027099251747e-02</internalNodes>
          <leafValues>
            -9.4233566522598267e-01 3.2282781600952148e-01</leafValues></_>
        <_>
          <internalNodes>
            0 -1 42 -1.8020389601588249e-02</internalNodes>
          <leafValues>
            6.7662662267684937e-01 -4.9954661726951599e-01</leafValues></_></weakClassifiers></_>
    <!-- stage 3 -->
    <_>
      <maxWeakCount>5</maxWeakCount>
      <stageThreshold>-1.4424166679382324e+00</stageThreshold>
      <weakClassifiers>
        <_>
          <internalNodes>
            0 -1 22 -7.8378975391387939e-02</internalNodes>
          <leafValues>
            9.0147781372070313e-01 -8.5553473234176636e-01</leafValues></_>
        <_>
          <internalNodes>
            0 -1 3 9.3385249376296997e-02</internalNodes>
          <leafValues>
            -6.8779057264328003e-01 7.1062171459197998e-01</leafValues></_>
        <_>
          <internalNodes>
            0 -1 43 -3.2256133854389191e-02</internalNodes>
          <leafValues>
            6.5525376796722412e-01 -4.7109386324882507e-01</leafValues></_>
        <_>
          <internalNodes>
            0 -1 29 -1.1455290950834751e-02</internalNodes>
          <leafValues>
            3.4328323602676392e-01 -8.3132743835449219e-01</leafValues></_>
        <_>
          <internalNodes>
            0 -1 8 -2.2671737242490053e-03</internalNodes>
          <leafValues>
            -1. 2.7698227763175964e-01</leafValues></_></weakClassifiers></_>
    <!-- stage 4 -->
    <_>
      <maxWeakCount>5</maxWeakCount>
      <stageThreshold>-1.5162947177886963e+00</stageThreshold>
      <weakClassifiers>
        <_>
          <internalNodes>
            0 -1 24 3.8039989769458771e-02</internalNodes>
          <leafValues>
            -8.5310733318328857e-01 8.5507243871688843e-01</leafValues></_>
        <_>
          <internalNodes>
            0 -1 28 6.0878671705722809e-02</internalNodes>
          <leafValues>
            -7.2495663166046143e-01 5.6534886360168457e-01</leafValues></_>
        <_>
          <internalNodes>
            0 -1 1 -8.5382033139467239e-03</internalNodes>
          <leafValues>
            4.6375668048858643e-01 -7.0571595430374146e-01</leafValues></_>
        <_>
          <internalNodes>
            0 -1 16 -3.2755002379417419e-02</internalNodes>
          <leafValues>
            3.7014797329902649e-01 -8.7163281440734863e-01</leafValues></_>
        <_>
          <internalNodes>
            0 -1 14 2.8538610786199570e-03</internalNodes>
          <leafValues>
            -5.3733307123184204e-01 4.6964544057846069e-01</leafValues></_></weakClassifiers></_>
    <!-- stage 5 -->
    <_>
      <maxWeakCount>5</maxWeakCount>
      <stageThreshold>-1.3198648691177368e+00</stageThreshold>
      <weakClassifiers>
        <_>
          <internalNodes>
            0 -1 36 -3.0768509954214096e-02</internalNodes>
          <leafValues>
            8.0295568704605103e-01 -8.3677297830581665e-01</leafValues></_>
        <_>
          <internalNodes>
            0 -1 49 -1.2705303728580475e-02</internalNodes>
          <leafValues>
            3.8287812471389771e-01 -7.9980212450027466e-01</leafValues></_>
        <_>
          <internalNodes>
            0 -1 30 2.1082632243633270e-02</internalNodes>
          <leafValues>
            -5.3696584701538086e-01 5.8394849300384521e-01</leafValues></_>
        <_>
          <internalNodes>
            0 -1 19 -3.9668299257755280e-02</internalNodes>
          <leafValues>
            6.2399184703826904e-01 -5.1739370822906494e-01</leafValues></_>
        <_>
          <internalNodes>
            0 -1 5 9.3675847165286541e-04</internalNodes>
          <leafValues>
            -8.9123016595840454e-01 3.2427561283111572e-01</leafValues></_></weakClassifiers></_>
    <!-- stage 6 -->
    <_>
      <maxWeakCount>6</maxWeakCount>
      <stageThreshold>-1.7547345161437988e+00</stageThreshold>
      <weakClassifiers>
        <_>
          <internalNodes>
            0 -1 24 4.4397655874490738e-02</internalNodes>
          <leafValues>
            -8.4045583009719849e-01 7.2222220897674561e-01</leafValues></_>
        <_>
          <internalNodes>
            0 -1 17 2.9600905254483223e-02</internalNodes>
          <leafValues>
            -7.2349596023559570e-01 5.1081693172454834e-01</leafValues></_>
        <_>
          <internalNodes>
            0 -1 46 2.6926167309284210e-02</internalNodes>
          <leafValues>
            -5.1437944173812866e-01 5.3423881530761719e-01</leafValues></_>
        <_>
          <internalNodes>
            0 -1 7 -5.6490562856197357e-03</internalNodes>
          <leafValues>
            6.7199355363845825e-01 -4.0663260221481323e-01</leafValues></_>
        <_>
          <internalNodes>
            0 -1 4 3.5967642907053232e-03</internalNodes>
          <leafValues>
            -8.8765126466751099e-01 2.8452333807945251e-01</leafValues></_>
        <_>
          <internalNodes>
            0 -1 33 -8.9220963418483734e-03</internalNodes>
          <leafValues>
            4.4570603966712952e-01 -5.5345588922500610e-01</leafValues></_></weakClassifiers></_>
    <!-- stage 7 -->
    <_>
      <maxWeakCount>6</maxWeakCount>
      <stageThreshold>-1.8442158699035645e+00</stageThreshold>
      <weakClassifiers>
        <_>
          <internalNodes>
            0 -1 25 6.4685314893722534e-02</internalNodes>
          <leafValues>
            -7.8300178050994873e-01 8.4049081802368164e-01</leafValues></_>
        <_>
          <internalNodes>
            0 -1 0 1.0957988351583481e-01</internalNodes>
          <leafValues>
            -6.9056850671768188e-01 5.8700054883956909e-01</leafValues></_>
        <_>
          <internalNodes>
            0 -1 15 -2.3852270096540451e-02</internalNodes>
          <leafValues>
            7.0646470785140991e-01 -3.9153456687927246e-01</leafValues></_>
        <_>
          <internalNodes>
            0 -1 41 2.7103964239358902e-03</internalNodes>
          <leafValues>
            -5.7971787452697754e-01 4.6368902921676636e-01</leafValues></_>
        <_>
          <internalNodes>
            0 -1 11 1.6864070668816566e-02</internalNodes>
          <leafValues>
            2.9572954773902893e-01 -8.4342092275619507e-01</leafValues></_>
        <_>
          <internalNodes>
            0 -1 39 1.5735880006104708e-03</internalNodes>
          <leafValues>
            -7.3852956295013428e-01 3.2938915491104126e-01</leafValues></_></weakClassifiers></_>
    <!-- stage 8 -->
    <_>
      <maxWeakCount>7</maxWeakCount>
      <stageThreshold>-1.6190985441207886e+00</stageThreshold>
      <weakClassifiers>
        <_>
          <internalNodes>
            0 -1 35 9.4448976218700409e-02</internalNodes>
          <leafValues>
            -8.5185188055038452e-01 4.5185184478759766e-01</leafValues></_>
        <_>
          <internalNodes>
            0 -1 23 3.9447871968150139e-03</internalNodes>
          <leafValues>
            -7.2893095016479492e-01 4.4633036851882935e-01</leafValues></_>
        <_>
          <internalNodes>
            0 -1 44 1.0888112708926201e-02</internalNodes>
          <leafValues>
            -6.9681149721145630e-01 3.8591235876083374e-01</leafValues></_>
        <_>
          <internalNodes>
            0 -1 6 2.1090492606163025e-02</internalNodes>
          <leafValues>
            -6.0673201084136963e-01 3.8195168972015381e-01</leafValues></_>
        <_>
          <internalNodes>
            0 -1 26 -3.0315034091472626e-03</internalNodes>
          <leafValues>
            5.1543295383453369e-01 -5.8021569252014160e-01</leafValues></_>
        <_>
          <internalNodes>
            0 -1 21 -6.7547917366027832e-02</internalNodes>
          <leafValues>
            -9.1207015514373779e-01 2.8256672620773315e-01</leafValues></_>
        <_>
          <internalNodes>
            0 -1 38 -1.1271331459283829e-02</internalNodes>
          <leafValues>
            5.7419300079345703e-01 -4.7061124444007874e-01</leafValues></_></weakClassifiers></_>
    <!-- stage 9 -->
    <_>
      <maxWeakCount>6</maxWeakCount>
      <stageThreshold>-1.5794484615325928e+00</stageThreshold>
      <weakClassifiers>
        <_>
          <internalNodes>
            0 -1 45 4.6379212290048599e-02</internalNodes>
          <leafValues>
            -8.5040986537933350e-01 3.4470990300178528e-01</leafValues></_>
        <_>
          <internalNodes>
            0 -1 34 9.9137136712670326e-03</internalNodes>
          <leafValues>
            -7.0575749874114990e-01 3.8172250986099243e-01</leafValues></_>
        <_>
          <internalNodes>
            0 -1 48 -1.4997655525803566e-02</internalNodes>
          <leafValues>
            2.9839208722114563e-01 -7.8273129463195801e-01</leafValues></_>
        <_>
          <internalNodes>
            0 -1 20 -2.6111191138625145e-02</internalNodes>
          <leafValues>
            3.0541688203811646e-01 -8.1593793630599976e-01</leafValues></_>
        <_>
          <internalNodes>
            0 -1 9 -4.8466622829437256e-03</internalNodes>
          <leafValues>
            2.4723176658153534e-01 -8.9713931083679199e-01</leafValues></_>
        <_>
          <internalNodes>
            0 -1 2 2.3030204465612769e-04</internalNodes>
          <leafValues>
            -8.7432181835174561e-01 2.9392823576927185e-01</leafValues></_></weakClassifiers></_></stages>
  <features>
    <_>
      <rects>
        <_>
          0 2 21 5 -1.</_>
        <_>
          7 2 7 5 3.</_></rects>
      <tilted>0</tilted></_>
    <_>
      <rects>
        <_>
          0 3 9 4 -1.</_>
        <_>
          3 3 3 4 3.</_></rects>
      <tilted>0</tilted></_>
    <_>
      <rects>
        <_>
          0 7 8 2 -1.</_>
        <_>
          0 8 8 1 2.</_></rects>
      <tilted>0</tilted></_>
    <_>
      <rects>
        <_>
          0 8 12 6 -1.</_>
        <_>
          4 8 4 6 3.</_></rects>
      <tilted>0</tilted></_>
    <_>
      <rects>
        <_>
          0 9 20 2 -1.</_>
        <_>
          0 10 20 1 2.</_></rects>
      <tilted>0</tilted></_>
    <_>
      <rects>
        <_>
          0 12 19 2 -1.</_>
        <_>
          0 13 19 1 2.</_></rects>
      <tilted>0</tilted></_>
    <_>
      <rects>
        <_>
          0 14 14 9 -1.</_>
        <_>
          0 17 14 3 3.</_></rects>
      <tilted>0</tilted></_>
    <_>
      <rects>
        <_>
          1 0 8 2 -1.</_>
        <_>
          1 1 8 1 2.</_></rects>
      <tilted>0</tilted></_>
    <_>
      <rects>
        <_>
          1 3 9 4 -1.</_>
        <_>
          1 5 9 2 2.</_></rects>
      <tilted>0</tilted></_>
    <_>
      <rects>
        <_>
          1 3 11 12 -1.</_>
        <_>
          1 7 11 4 3.</_></rects>
      <tilted>0</tilted></_>
    <_>
      <rects>
        <_>
          1 3 16 14 -1.</_>
        <_>
          1 10 16 7 2.</_></rects>
      <tilted>0</tilted></_>
    <_>
      <rects>
        <_>
          1 5 20 8 -1.</_>
        <_>
          1 5 10 4 2.</_>
        <_>
          11 9 10 4 2.</_></rects>
      <tilted>0</tilted></_>
    <_>
      <rects>
        <_>
          1 6 12 8 -1.</_>
        <_>
          5 6 4 8 3.</_></rects>
      <tilted>0</tilted></_>
    <_>
      <rects>
        <_>
          1 8 12 5 -1.</_>
        <_>
          5 8 4 5 3.</_></rects>
      <tilted>0</tilted></_>
    <_>
      <rects>
        <_>
          1 10 2 7 -1.</_>
        <_>
          2 10 1 7 2.</_></rects>
      <tilted>0</tilted></_>
    <_>
      <rects>
        <_>
          1 19 21 3 -1.</_>
        <_>
          1 20 21 1 3.</_></rects>
      <tilted>0</tilted></_>
    <_>
      <rects>
        <_>
          2 1 21 12 -1.</_>
        <_>
          2 5 21 4 3.</_></rects>
      <tilted>0</tilted></_>
    <_>
      <rects>
        <_>
          2 5 4 12 -1.</_>
        <_>
          4 5 2 12 2.</_></rects>
      <tilted>0</tilted></_>
    <_>
      <rects>
        <_>
          2 6 9 10 -1.</_>
        <_>
          2 11 9 5 2.</_></rects>
      <tilted>0</tilted></_>
    <_>
      <rects>
        <_>
          3 18 18 4 -1.</_>
        <_>
          3 20 18 2 2.</_></rects>
      <tilted>0</tilted></_>
    <_>
      <rects>
        <_>
          7 1 14 11 -1.</_>
        <_>
          14 1 7 11 2.</_></rects>
      <tilted>0</tilted></_>
    <_>
      <rects>
        <_>
          7 3 14 12 -1.</_>
        <_>
          7 7 14 4 3.</_></rects>
      <tilted>0</tilted></_>
    <_>
      <rects>
        <_>
          7 7 9 5 -1.</_>
        <_>
          10 7 3 5 3.</_></rects>
      <tilted>0</tilted></_>
    <_>
      <rects>
        <_>
          7 15 4 2 -1.</_>
        <_>
          9 15 2 2 2.</_></rects>
      <tilted>0</tilted></_>
    <_>
      <rects>
        <_>
          8 5 4 14 -1.</_>
        <_>
          8 5 2 7 2.</_>
        <_>
          10 12 2 7 2.</_></rects>
      <tilted>0</tilted></_>
    <_>
      <rects>
        <_>
          8 6 4 14 -1.</_>
        <_>
          8 6 2 7 2.</_>
        <_>
          10 13 2 7 2.</_></rects>
      <tilted>0</tilted></_>
    <_>
      <rects>
        <_>
          8 8 2 4 -1.</_>
        <_>
          9 8 1 4 2.</_></rects>
      <tilted>0</tilted></_>
    <_>
      <rects>
        <_>
          8 17 14 6 -1.</_>
        <_>
          8 20 14 3 2.</_></rects>
      <tilted>0</tilted></_>
    <_>
      <rects>
        <_>
          9 1 8 12 -1.</_>
        <_>
          9 1 4 6 2.</_>
        <_>
          13 7 4 6 2.</_></rects>
      <tilted>0</tilted></_>
    <_>
      <rects>
        <_>
          9 13 14 8 -1.</_>
        <_>
          9 17 14 4 2.</_></rects>
      <tilted>0</tilted></_>
    <_>
      <rects>
        <_>
          10 0 4 12 -1.</_>
        <_>
          10 0 2 6 2.</_>
        <_>
          12 6 2 6 2.</_></rects>
      <tilted>0</tilted></_>
    <_>
      <rects>
        <_>
          10 1 6 12 -1.</_>
        <_>
          10 1 3 6 2.</_>
        <_>
          13 7 3 6 2.</_></rects>
      <tilted>0</tilted></_>
    <_>
      <rects>
        <_>
          10 1 6 14 -1.</_>
        <_>
          10 1 3 7 2.</_>
        <_>
          13 8 3 7 2.</_></rects>
      <tilted>0</tilted></_>
    <_>
      <rects>
        <_>
          10 10 4 8 -1.</_>
        <_>
          10 10 2 4 2.</_>
        <_>
          12 14 2 4 2.</_></rects>
      <tilted>0</tilted></_>
    <_>
      <rects>
        <_>
          10 11 1 9 -1.</_>
        <_>
          10 14 1 3 3.</_></rects>
      <tilted>0</tilted></_>
    <_>
      <rects>
        <_>
          11 7 9 7 -1.</_>
        <_>
          14 7 3 7 3.</_></rects>
      <tilted>0</tilted></_>
    <_>
      <rects>
        <_>
          11 9 4 8 -1.</_>
        <_>
          11 9 2 4 2.</_>
        <_>
          13 13 2 4 2.</_></rects>
      <tilted>0</tilted></_>
    <_>
      <rects>
        <_>
          12 2 9 5 -1.</_>
        <_>
          15 2 3 5 3.</_></rects>
      <tilted>0</tilted></_>
    <_>
      <rects>
        <_>
          12 19 11 3 -1.</_>
        <_>
          12 20 11 1 3.</_></rects>
      <tilted>0</tilted></_>
    <_>
      <rects>
        <_>
          13 8 5 2 -1.</_>
        <_>
          13 9 5 1 2.</_></rects>
      <tilted>0</tilted></_>
    <_>
      <rects>
        <_>
          13 10 6 6 -1.</_>
        <_>
          13 10 3 3 2.</_>
        <_>
          16 13 3 3 2.</_></rects>
      <tilted>0</tilted></_>
    <_>
      <rects>
        <_>
          13 11 4 4 -1.</_>
        <_>
          13 11 2 2 2.</_>
        <_>
          15 13 2 2 2.</_></rects>
      <tilted>0</tilted></_>
    <_>
      <rects>
        <_>
          13 18 4 6 -1.</_>
        <_>
          13 20 4 2 3.</_></rects>
      <tilted>0</tilted></_>
    <_>
      <rects>
        <_>
          14 6 9 5 -1.</_>
        <_>
          17 6 3 5 3.</_></rects>
      <tilted>0</tilted></_>
    <_>
      <rects>
        <_>
          14 9 7 4 -1.</_>
        <_>
          14 11 7 2 2.</_></rects>
      <tilted>0</tilted></_>
    <_>
      <rects>
        <_>
          15 2 2 12 -1.</_>
        <_>
          15 8 2 6 2.</_></rects>
      <tilted>0</tilted></_>
    <_>
      <rects>
        <_>
          15 3 1 18 -1.</_>
        <_>
          15 9 1 6 3.</_></rects>
      <tilted>0</tilted></_>
    <_>
      <rects>
        <_>
          15 10 6 5 -1.</_>
        <_>
          18 10 3 5 2.</_></rects>
      <tilted>0</tilted></_>
    <_>
      <rects>
        <_>
          15 17 6 6 -1.</_>
        <_>
          15 20 6 3 2.</_></rects>
      <tilted>0</tilted></_>
    <_>
      <rects>
        <_>
          16 9 8 6 -1.</_>
        <_>
          16 9 4 3 2.</_>
        <_>
          20 12 4 3 2.</_></rects>
      <tilted>0</tilted></_></features></cascade>
</opencv_storage>
